digraph Tree {
node [shape=box, style="filled, rounded", color="black", fontname=helvetica] ;
edge [fontname=helvetica] ;
0 [label="Title <= 0.5\ngini = 0.48\nsamples = 565\nvalue = [532, 359]\nclass = perished", fillcolor="#f7d6bf"] ;
1 [label="Pclass <= 1.5\ngini = 0.27\nsamples = 315\nvalue = [426, 81]\nclass = perished", fillcolor="#ea995f"] ;
0 -> 1 [labeldistance=2.5, labelangle=45, headlabel="True"] ;
2 [label="Age <= 52.5\ngini = 0.47\nsamples = 66\nvalue = [72, 42]\nclass = perished", fillcolor="#f4caac"] ;
1 -> 2 ;
3 [label="IsAlone <= 0.5\ngini = 0.49\nsamples = 52\nvalue = [48, 39]\nclass = perished", fillcolor="#fae7da"] ;
2 -> 3 ;
4 [label="FamilySize <= 2.5\ngini = 0.5\nsamples = 20\nvalue = [17, 14]\nclass = perished", fillcolor="#fae9dc"] ;
3 -> 4 ;
5 [label="Embarked <= 1.0\ngini = 0.5\nsamples = 17\nvalue = [14, 14]\nclass = perished", fillcolor="#ffffff"] ;
4 -> 5 ;
6 [label="Fare <= 3.7\ngini = 0.5\nsamples = 9\nvalue = [9, 8]\nclass = perished", fillcolor="#fcf1e9"] ;
5 -> 6 ;
7 [label="gini = 0.0\nsamples = 1\nvalue = [3, 0]\nclass = perished", fillcolor="#e58139"] ;
6 -> 7 ;
8 [label="Age <= 49.5\ngini = 0.49\nsamples = 8\nvalue = [6, 8]\nclass = survived", fillcolor="#cee6f8"] ;
6 -> 8 ;
9 [label="Age <= 32.0\ngini = 0.44\nsamples = 7\nvalue = [4, 8]\nclass = survived", fillcolor="#9ccef2"] ;
8 -> 9 ;
10 [label="Fare <= 4.28\ngini = 0.5\nsamples = 4\nvalue = [4, 4]\nclass = perished", fillcolor="#ffffff"] ;
9 -> 10 ;
11 [label="gini = 0.0\nsamples = 2\nvalue = [0, 4]\nclass = survived", fillcolor="#399de5"] ;
10 -> 11 ;
12 [label="gini = 0.0\nsamples = 2\nvalue = [4, 0]\nclass = perished", fillcolor="#e58139"] ;
10 -> 12 ;
13 [label="gini = 0.0\nsamples = 3\nvalue = [0, 4]\nclass = survived", fillcolor="#399de5"] ;
9 -> 13 ;
14 [label="gini = 0.0\nsamples = 1\nvalue = [2, 0]\nclass = perished", fillcolor="#e58139"] ;
8 -> 14 ;
15 [label="Fare <= 4.35\ngini = 0.5\nsamples = 8\nvalue = [5, 6]\nclass = survived", fillcolor="#deeffb"] ;
5 -> 15 ;
16 [label="Age <= 47.0\ngini = 0.49\nsamples = 7\nvalue = [5, 4]\nclass = perished", fillcolor="#fae6d7"] ;
15 -> 16 ;
17 [label="Age <= 30.0\ngini = 0.41\nsamples = 6\nvalue = [5, 2]\nclass = perished", fillcolor="#efb388"] ;
16 -> 17 ;
18 [label="gini = 0.0\nsamples = 1\nvalue = [1, 0]\nclass = perished", fillcolor="#e58139"] ;
17 -> 18 ;
19 [label="Fare <= 3.96\ngini = 0.44\nsamples = 5\nvalue = [4, 2]\nclass = perished", fillcolor="#f2c09c"] ;
17 -> 19 ;
20 [label="gini = 0.0\nsamples = 2\nvalue = [3, 0]\nclass = perished", fillcolor="#e58139"] ;
19 -> 20 ;
21 [label="Fare <= 4.08\ngini = 0.44\nsamples = 3\nvalue = [1, 2]\nclass = survived", fillcolor="#9ccef2"] ;
19 -> 21 ;
22 [label="gini = 0.0\nsamples = 2\nvalue = [0, 2]\nclass = survived", fillcolor="#399de5"] ;
21 -> 22 ;
23 [label="gini = 0.0\nsamples = 1\nvalue = [1, 0]\nclass = perished", fillcolor="#e58139"] ;
21 -> 23 ;
24 [label="gini = 0.0\nsamples = 1\nvalue = [0, 2]\nclass = survived", fillcolor="#399de5"] ;
16 -> 24 ;
25 [label="gini = 0.0\nsamples = 1\nvalue = [0, 2]\nclass = survived", fillcolor="#399de5"] ;
15 -> 25 ;
26 [label="gini = 0.0\nsamples = 3\nvalue = [3, 0]\nclass = perished", fillcolor="#e58139"] ;
4 -> 26 ;
27 [label="Age <= 25.5\ngini = 0.49\nsamples = 32\nvalue = [31, 25]\nclass = perished", fillcolor="#fae7d9"] ;
3 -> 27 ;
28 [label="gini = 0.0\nsamples = 2\nvalue = [4, 0]\nclass = perished", fillcolor="#e58139"] ;
27 -> 28 ;
29 [label="Age <= 45.25\ngini = 0.5\nsamples = 30\nvalue = [27, 25]\nclass = perished", fillcolor="#fdf6f0"] ;
27 -> 29 ;
30 [label="Fare <= 3.26\ngini = 0.5\nsamples = 24\nvalue = [19, 23]\nclass = survived", fillcolor="#ddeefa"] ;
29 -> 30 ;
31 [label="gini = 0.0\nsamples = 3\nvalue = [5, 0]\nclass = perished", fillcolor="#e58139"] ;
30 -> 31 ;
32 [label="Age <= 33.7\ngini = 0.47\nsamples = 21\nvalue = [14, 23]\nclass = survived", fillcolor="#b2d9f5"] ;
30 -> 32 ;
33 [label="Fare <= 3.36\ngini = 0.5\nsamples = 13\nvalue = [10, 9]\nclass = perished", fillcolor="#fcf2eb"] ;
32 -> 33 ;
34 [label="Fare <= 3.3\ngini = 0.28\nsamples = 3\nvalue = [5, 1]\nclass = perished", fillcolor="#ea9a61"] ;
33 -> 34 ;
35 [label="gini = 0.38\nsamples = 2\nvalue = [3, 1]\nclass = perished", fillcolor="#eeab7b"] ;
34 -> 35 ;
36 [label="gini = 0.0\nsamples = 1\nvalue = [2, 0]\nclass = perished", fillcolor="#e58139"] ;
34 -> 36 ;
37 [label="Fare <= 3.66\ngini = 0.47\nsamples = 10\nvalue = [5, 8]\nclass = survived", fillcolor="#b5daf5"] ;
33 -> 37 ;
38 [label="Embarked <= 1.0\ngini = 0.42\nsamples = 8\nvalue = [3, 7]\nclass = survived", fillcolor="#8ec7f0"] ;
37 -> 38 ;
39 [label="gini = 0.0\nsamples = 1\nvalue = [0, 1]\nclass = survived", fillcolor="#399de5"] ;
38 -> 39 ;
40 [label="Age <= 28.5\ngini = 0.44\nsamples = 7\nvalue = [3, 6]\nclass = survived", fillcolor="#9ccef2"] ;
38 -> 40 ;
41 [label="gini = 0.0\nsamples = 1\nvalue = [0, 2]\nclass = survived", fillcolor="#399de5"] ;
40 -> 41 ;
42 [label="Age <= 30.7\ngini = 0.49\nsamples = 6\nvalue = [3, 4]\nclass = survived", fillcolor="#cee6f8"] ;
40 -> 42 ;
43 [label="gini = 0.0\nsamples = 1\nvalue = [1, 0]\nclass = perished", fillcolor="#e58139"] ;
42 -> 43 ;
44 [label="Fare <= 3.43\ngini = 0.44\nsamples = 5\nvalue = [2, 4]\nclass = survived", fillcolor="#9ccef2"] ;
42 -> 44 ;
45 [label="gini = 0.0\nsamples = 2\nvalue = [0, 3]\nclass = survived", fillcolor="#399de5"] ;
44 -> 45 ;
46 [label="Fare <= 3.56\ngini = 0.44\nsamples = 3\nvalue = [2, 1]\nclass = perished", fillcolor="#f2c09c"] ;
44 -> 46 ;
47 [label="gini = 0.0\nsamples = 2\nvalue = [2, 0]\nclass = perished", fillcolor="#e58139"] ;
46 -> 47 ;
48 [label="gini = 0.0\nsamples = 1\nvalue = [0, 1]\nclass = survived", fillcolor="#399de5"] ;
46 -> 48 ;
49 [label="Fare <= 4.04\ngini = 0.44\nsamples = 2\nvalue = [2, 1]\nclass = perished", fillcolor="#f2c09c"] ;
37 -> 49 ;
50 [label="gini = 0.0\nsamples = 1\nvalue = [2, 0]\nclass = perished", fillcolor="#e58139"] ;
49 -> 50 ;
51 [label="gini = 0.0\nsamples = 1\nvalue = [0, 1]\nclass = survived", fillcolor="#399de5"] ;
49 -> 51 ;
52 [label="Fare <= 3.5\ngini = 0.35\nsamples = 8\nvalue = [4, 14]\nclass = survived", fillcolor="#72b9ec"] ;
32 -> 52 ;
53 [label="gini = 0.0\nsamples = 7\nvalue = [0, 14]\nclass = survived", fillcolor="#399de5"] ;
52 -> 53 ;
54 [label="gini = 0.0\nsamples = 1\nvalue = [4, 0]\nclass = perished", fillcolor="#e58139"] ;
52 -> 54 ;
55 [label="Fare <= 3.31\ngini = 0.32\nsamples = 6\nvalue = [8, 2]\nclass = perished", fillcolor="#eca06a"] ;
29 -> 55 ;
56 [label="Age <= 47.5\ngini = 0.44\nsamples = 3\nvalue = [1, 2]\nclass = survived", fillcolor="#9ccef2"] ;
55 -> 56 ;
57 [label="gini = 0.0\nsamples = 1\nvalue = [1, 0]\nclass = perished", fillcolor="#e58139"] ;
56 -> 57 ;
58 [label="gini = 0.0\nsamples = 2\nvalue = [0, 2]\nclass = survived", fillcolor="#399de5"] ;
56 -> 58 ;
59 [label="gini = 0.0\nsamples = 3\nvalue = [7, 0]\nclass = perished", fillcolor="#e58139"] ;
55 -> 59 ;
60 [label="FamilySize <= 2.5\ngini = 0.2\nsamples = 14\nvalue = [24, 3]\nclass = perished", fillcolor="#e89152"] ;
2 -> 60 ;
61 [label="IsAlone <= 0.5\ngini = 0.15\nsamples = 12\nvalue = [22, 2]\nclass = perished", fillcolor="#e78c4b"] ;
60 -> 61 ;
62 [label="gini = 0.0\nsamples = 2\nvalue = [4, 0]\nclass = perished", fillcolor="#e58139"] ;
61 -> 62 ;
63 [label="Fare <= 3.4\ngini = 0.18\nsamples = 10\nvalue = [18, 2]\nclass = perished", fillcolor="#e88f4f"] ;
61 -> 63 ;
64 [label="gini = 0.0\nsamples = 5\nvalue = [12, 0]\nclass = perished", fillcolor="#e58139"] ;
63 -> 64 ;
65 [label="Age <= 75.5\ngini = 0.38\nsamples = 5\nvalue = [6, 2]\nclass = perished", fillcolor="#eeab7b"] ;
63 -> 65 ;
66 [label="gini = 0.0\nsamples = 4\nvalue = [6, 0]\nclass = perished", fillcolor="#e58139"] ;
65 -> 66 ;
67 [label="gini = 0.0\nsamples = 1\nvalue = [0, 2]\nclass = survived", fillcolor="#399de5"] ;
65 -> 67 ;
68 [label="FamilySize <= 4.5\ngini = 0.44\nsamples = 2\nvalue = [2, 1]\nclass = perished", fillcolor="#f2c09c"] ;
60 -> 68 ;
69 [label="gini = 0.0\nsamples = 1\nvalue = [0, 1]\nclass = survived", fillcolor="#399de5"] ;
68 -> 69 ;
70 [label="gini = 0.0\nsamples = 1\nvalue = [2, 0]\nclass = perished", fillcolor="#e58139"] ;
68 -> 70 ;
71 [label="Age <= 32.2\ngini = 0.18\nsamples = 249\nvalue = [354, 39]\nclass = perished", fillcolor="#e88f4f"] ;
1 -> 71 ;
72 [label="FamilySize <= 3.5\ngini = 0.23\nsamples = 130\nvalue = [182, 28]\nclass = perished", fillcolor="#e99457"] ;
71 -> 72 ;
73 [label="Fare <= 3.65\ngini = 0.23\nsamples = 127\nvalue = [178, 28]\nclass = perished", fillcolor="#e99558"] ;
72 -> 73 ;
74 [label="Fare <= 1.95\ngini = 0.21\nsamples = 120\nvalue = [173, 24]\nclass = perished", fillcolor="#e99254"] ;
73 -> 74 ;
75 [label="Age <= 22.5\ngini = 0.48\nsamples = 5\nvalue = [3, 2]\nclass = perished", fillcolor="#f6d5bd"] ;
74 -> 75 ;
76 [label="gini = 0.0\nsamples = 3\nvalue = [3, 0]\nclass = perished", fillcolor="#e58139"] ;
75 -> 76 ;
77 [label="gini = 0.0\nsamples = 2\nvalue = [0, 2]\nclass = survived", fillcolor="#399de5"] ;
75 -> 77 ;
78 [label="Embarked <= 0.5\ngini = 0.2\nsamples = 115\nvalue = [170, 22]\nclass = perished", fillcolor="#e89153"] ;
74 -> 78 ;
79 [label="Age <= 21.75\ngini = 0.42\nsamples = 8\nvalue = [12, 5]\nclass = perished", fillcolor="#f0b58b"] ;
78 -> 79 ;
80 [label="Fare <= 2.84\ngini = 0.47\nsamples = 4\nvalue = [3, 5]\nclass = survived", fillcolor="#b0d8f5"] ;
79 -> 80 ;
81 [label="Age <= 17.5\ngini = 0.41\nsamples = 3\nvalue = [2, 5]\nclass = survived", fillcolor="#88c4ef"] ;
80 -> 81 ;
82 [label="gini = 0.0\nsamples = 1\nvalue = [2, 0]\nclass = perished", fillcolor="#e58139"] ;
81 -> 82 ;
83 [label="gini = 0.0\nsamples = 2\nvalue = [0, 5]\nclass = survived", fillcolor="#399de5"] ;
81 -> 83 ;
84 [label="gini = 0.0\nsamples = 1\nvalue = [1, 0]\nclass = perished", fillcolor="#e58139"] ;
80 -> 84 ;
85 [label="gini = 0.0\nsamples = 4\nvalue = [9, 0]\nclass = perished", fillcolor="#e58139"] ;
79 -> 85 ;
86 [label="Embarked <= 1.5\ngini = 0.18\nsamples = 107\nvalue = [158, 17]\nclass = perished", fillcolor="#e88f4e"] ;
78 -> 86 ;
87 [label="Fare <= 2.05\ngini = 0.2\nsamples = 5\nvalue = [8, 1]\nclass = perished", fillcolor="#e89152"] ;
86 -> 87 ;
88 [label="gini = 0.0\nsamples = 2\nvalue = [3, 0]\nclass = perished", fillcolor="#e58139"] ;
87 -> 88 ;
89 [label="Age <= 30.0\ngini = 0.28\nsamples = 3\nvalue = [5, 1]\nclass = perished", fillcolor="#ea9a61"] ;
87 -> 89 ;
90 [label="gini = 0.0\nsamples = 1\nvalue = [0, 1]\nclass = survived", fillcolor="#399de5"] ;
89 -> 90 ;
91 [label="gini = 0.0\nsamples = 2\nvalue = [5, 0]\nclass = perished", fillcolor="#e58139"] ;
89 -> 91 ;
92 [label="Age <= 30.5\ngini = 0.17\nsamples = 102\nvalue = [150, 16]\nclass = perished", fillcolor="#e88e4e"] ;
86 -> 92 ;
93 [label="Pclass <= 2.5\ngini = 0.14\nsamples = 92\nvalue = [141, 12]\nclass = perished", fillcolor="#e78c4a"] ;
92 -> 93 ;
94 [label="IsAlone <= 0.5\ngini = 0.1\nsamples = 23\nvalue = [35, 2]\nclass = perished", fillcolor="#e68844"] ;
93 -> 94 ;
95 [label="gini = 0.0\nsamples = 3\nvalue = [6, 0]\nclass = perished", fillcolor="#e58139"] ;
94 -> 95 ;
96 [label="Fare <= 2.4\ngini = 0.12\nsamples = 20\nvalue = [29, 2]\nclass = perished", fillcolor="#e78a47"] ;
94 -> 96 ;
97 [label="Age <= 22.5\ngini = 0.32\nsamples = 7\nvalue = [8, 2]\nclass = perished", fillcolor="#eca06a"] ;
96 -> 97 ;
98 [label="Age <= 17.5\ngini = 0.5\nsamples = 3\nvalue = [2, 2]\nclass = perished", fillcolor="#ffffff"] ;
97 -> 98 ;
99 [label="gini = 0.0\nsamples = 1\nvalue = [1, 0]\nclass = perished", fillcolor="#e58139"] ;
98 -> 99 ;
100 [label="gini = 0.44\nsamples = 2\nvalue = [1, 2]\nclass = survived", fillcolor="#9ccef2"] ;
98 -> 100 ;
101 [label="gini = 0.0\nsamples = 4\nvalue = [6, 0]\nclass = perished", fillcolor="#e58139"] ;
97 -> 101 ;
102 [label="gini = 0.0\nsamples = 13\nvalue = [21, 0]\nclass = perished", fillcolor="#e58139"] ;
96 -> 102 ;
103 [label="FamilySize <= 2.5\ngini = 0.16\nsamples = 69\nvalue = [106, 10]\nclass = perished", fillcolor="#e78d4c"] ;
93 -> 103 ;
104 [label="IsAlone <= 0.5\ngini = 0.17\nsamples = 64\nvalue = [99, 10]\nclass = perished", fillcolor="#e88e4d"] ;
103 -> 104 ;
105 [label="Age <= 21.0\ngini = 0.32\nsamples = 5\nvalue = [4, 1]\nclass = perished", fillcolor="#eca06a"] ;
104 -> 105 ;
106 [label="gini = 0.0\nsamples = 1\nvalue = [0, 1]\nclass = survived", fillcolor="#399de5"] ;
105 -> 106 ;
107 [label="gini = 0.0\nsamples = 4\nvalue = [4, 0]\nclass = perished", fillcolor="#e58139"] ;
105 -> 107 ;
108 [label="Fare <= 2.06\ngini = 0.16\nsamples = 59\nvalue = [95, 9]\nclass = perished", fillcolor="#e78d4c"] ;
104 -> 108 ;
109 [label="Age <= 20.5\ngini = 0.27\nsamples = 18\nvalue = [26, 5]\nclass = perished", fillcolor="#ea995f"] ;
108 -> 109 ;
110 [label="gini = 0.0\nsamples = 6\nvalue = [10, 0]\nclass = perished", fillcolor="#e58139"] ;
109 -> 110 ;
111 [label="Age <= 21.5\ngini = 0.36\nsamples = 12\nvalue = [16, 5]\nclass = perished", fillcolor="#eda877"] ;
109 -> 111 ;
112 [label="Fare <= 2.05\ngini = 0.44\nsamples = 2\nvalue = [1, 2]\nclass = survived", fillcolor="#9ccef2"] ;
111 -> 112 ;
113 [label="gini = 0.0\nsamples = 1\nvalue = [1, 0]\nclass = perished", fillcolor="#e58139"] ;
112 -> 113 ;
114 [label="gini = 0.0\nsamples = 1\nvalue = [0, 2]\nclass = survived", fillcolor="#399de5"] ;
112 -> 114 ;
115 [label="Age <= 26.0\ngini = 0.28\nsamples = 10\nvalue = [15, 3]\nclass = perished", fillcolor="#ea9a61"] ;
111 -> 115 ;
116 [label="Age <= 23.0\ngini = 0.14\nsamples = 7\nvalue = [12, 1]\nclass = perished", fillcolor="#e78c49"] ;
115 -> 116 ;
117 [label="gini = 0.0\nsamples = 2\nvalue = [5, 0]\nclass = perished", fillcolor="#e58139"] ;
116 -> 117 ;
118 [label="Fare <= 1.99\ngini = 0.22\nsamples = 5\nvalue = [7, 1]\nclass = perished", fillcolor="#e99355"] ;
116 -> 118 ;
119 [label="Age <= 24.5\ngini = 0.44\nsamples = 2\nvalue = [2, 1]\nclass = perished", fillcolor="#f2c09c"] ;
118 -> 119 ;
120 [label="gini = 0.0\nsamples = 1\nvalue = [0, 1]\nclass = survived", fillcolor="#399de5"] ;
119 -> 120 ;
121 [label="gini = 0.0\nsamples = 1\nvalue = [2, 0]\nclass = perished", fillcolor="#e58139"] ;
119 -> 121 ;
122 [label="gini = 0.0\nsamples = 3\nvalue = [5, 0]\nclass = perished", fillcolor="#e58139"] ;
118 -> 122 ;
123 [label="Age <= 28.0\ngini = 0.48\nsamples = 3\nvalue = [3, 2]\nclass = perished", fillcolor="#f6d5bd"] ;
115 -> 123 ;
124 [label="gini = 0.0\nsamples = 1\nvalue = [0, 2]\nclass = survived", fillcolor="#399de5"] ;
123 -> 124 ;
125 [label="gini = 0.0\nsamples = 2\nvalue = [3, 0]\nclass = perished", fillcolor="#e58139"] ;
123 -> 125 ;
126 [label="Fare <= 2.08\ngini = 0.1\nsamples = 41\nvalue = [69, 4]\nclass = perished", fillcolor="#e78844"] ;
108 -> 126 ;
127 [label="gini = 0.0\nsamples = 13\nvalue = [25, 0]\nclass = perished", fillcolor="#e58139"] ;
126 -> 127 ;
128 [label="Fare <= 2.09\ngini = 0.15\nsamples = 28\nvalue = [44, 4]\nclass = perished", fillcolor="#e78c4b"] ;
126 -> 128 ;
129 [label="Age <= 19.0\ngini = 0.28\nsamples = 12\nvalue = [15, 3]\nclass = perished", fillcolor="#ea9a61"] ;
128 -> 129 ;
130 [label="Age <= 17.0\ngini = 0.48\nsamples = 3\nvalue = [2, 3]\nclass = survived", fillcolor="#bddef6"] ;
129 -> 130 ;
131 [label="gini = 0.44\nsamples = 2\nvalue = [2, 1]\nclass = perished", fillcolor="#f2c09c"] ;
130 -> 131 ;
132 [label="gini = 0.0\nsamples = 1\nvalue = [0, 2]\nclass = survived", fillcolor="#399de5"] ;
130 -> 132 ;
133 [label="gini = 0.0\nsamples = 9\nvalue = [13, 0]\nclass = perished", fillcolor="#e58139"] ;
129 -> 133 ;
134 [label="Age <= 29.25\ngini = 0.06\nsamples = 16\nvalue = [29, 1]\nclass = perished", fillcolor="#e68540"] ;
128 -> 134 ;
135 [label="gini = 0.0\nsamples = 15\nvalue = [29, 0]\nclass = perished", fillcolor="#e58139"] ;
134 -> 135 ;
136 [label="gini = 0.0\nsamples = 1\nvalue = [0, 1]\nclass = survived", fillcolor="#399de5"] ;
134 -> 136 ;
137 [label="gini = 0.0\nsamples = 5\nvalue = [7, 0]\nclass = perished", fillcolor="#e58139"] ;
103 -> 137 ;
138 [label="Age <= 31.5\ngini = 0.43\nsamples = 10\nvalue = [9, 4]\nclass = perished", fillcolor="#f1b991"] ;
92 -> 138 ;
139 [label="Pclass <= 2.5\ngini = 0.48\nsamples = 4\nvalue = [2, 3]\nclass = survived", fillcolor="#bddef6"] ;
138 -> 139 ;
140 [label="IsAlone <= 0.5\ngini = 0.5\nsamples = 2\nvalue = [1, 1]\nclass = perished", fillcolor="#ffffff"] ;
139 -> 140 ;
141 [label="gini = 0.0\nsamples = 1\nvalue = [1, 0]\nclass = perished", fillcolor="#e58139"] ;
140 -> 141 ;
142 [label="gini = 0.0\nsamples = 1\nvalue = [0, 1]\nclass = survived", fillcolor="#399de5"] ;
140 -> 142 ;
143 [label="Fare <= 2.06\ngini = 0.44\nsamples = 2\nvalue = [1, 2]\nclass = survived", fillcolor="#9ccef2"] ;
139 -> 143 ;
144 [label="gini = 0.0\nsamples = 1\nvalue = [1, 0]\nclass = perished", fillcolor="#e58139"] ;
143 -> 144 ;
145 [label="gini = 0.0\nsamples = 1\nvalue = [0, 2]\nclass = survived", fillcolor="#399de5"] ;
143 -> 145 ;
146 [label="Pclass <= 2.5\ngini = 0.22\nsamples = 6\nvalue = [7, 1]\nclass = perished", fillcolor="#e99355"] ;
138 -> 146 ;
147 [label="Fare <= 2.8\ngini = 0.44\nsamples = 2\nvalue = [2, 1]\nclass = perished", fillcolor="#f2c09c"] ;
146 -> 147 ;
148 [label="gini = 0.0\nsamples = 1\nvalue = [2, 0]\nclass = perished", fillcolor="#e58139"] ;
147 -> 148 ;
149 [label="gini = 0.0\nsamples = 1\nvalue = [0, 1]\nclass = survived", fillcolor="#399de5"] ;
147 -> 149 ;
150 [label="gini = 0.0\nsamples = 4\nvalue = [5, 0]\nclass = perished", fillcolor="#e58139"] ;
146 -> 150 ;
151 [label="IsAlone <= 0.5\ngini = 0.49\nsamples = 7\nvalue = [5, 4]\nclass = perished", fillcolor="#fae6d7"] ;
73 -> 151 ;
152 [label="gini = 0.0\nsamples = 3\nvalue = [4, 0]\nclass = perished", fillcolor="#e58139"] ;
151 -> 152 ;
153 [label="Age <= 30.0\ngini = 0.32\nsamples = 4\nvalue = [1, 4]\nclass = survived", fillcolor="#6ab6ec"] ;
151 -> 153 ;
154 [label="Age <= 27.0\ngini = 0.5\nsamples = 2\nvalue = [1, 1]\nclass = perished", fillcolor="#ffffff"] ;
153 -> 154 ;
155 [label="gini = 0.0\nsamples = 1\nvalue = [0, 1]\nclass = survived", fillcolor="#399de5"] ;
154 -> 155 ;
156 [label="gini = 0.0\nsamples = 1\nvalue = [1, 0]\nclass = perished", fillcolor="#e58139"] ;
154 -> 156 ;
157 [label="gini = 0.0\nsamples = 2\nvalue = [0, 3]\nclass = survived", fillcolor="#399de5"] ;
153 -> 157 ;
158 [label="gini = 0.0\nsamples = 3\nvalue = [4, 0]\nclass = perished", fillcolor="#e58139"] ;
72 -> 158 ;
159 [label="Age <= 58.75\ngini = 0.11\nsamples = 119\nvalue = [172, 11]\nclass = perished", fillcolor="#e78946"] ;
71 -> 159 ;
160 [label="Age <= 34.5\ngini = 0.1\nsamples = 116\nvalue = [170, 10]\nclass = perished", fillcolor="#e78845"] ;
159 -> 160 ;
161 [label="Age <= 33.5\ngini = 0.14\nsamples = 69\nvalue = [99, 8]\nclass = perished", fillcolor="#e78b49"] ;
160 -> 161 ;
162 [label="FamilySize <= 2.5\ngini = 0.1\nsamples = 64\nvalue = [93, 5]\nclass = perished", fillcolor="#e68844"] ;
161 -> 162 ;
163 [label="Embarked <= 1.5\ngini = 0.08\nsamples = 60\nvalue = [87, 4]\nclass = perished", fillcolor="#e68742"] ;
162 -> 163 ;
164 [label="FamilySize <= 1.5\ngini = 0.04\nsamples = 27\nvalue = [46, 1]\nclass = perished", fillcolor="#e6843d"] ;
163 -> 164 ;
165 [label="Fare <= 2.01\ngini = 0.05\nsamples = 23\nvalue = [38, 1]\nclass = perished", fillcolor="#e6843e"] ;
164 -> 165 ;
166 [label="Embarked <= 0.5\ngini = 0.11\nsamples = 11\nvalue = [16, 1]\nclass = perished", fillcolor="#e78945"] ;
165 -> 166 ;
167 [label="Fare <= 1.98\ngini = 0.12\nsamples = 10\nvalue = [15, 1]\nclass = perished", fillcolor="#e78946"] ;
166 -> 167 ;
168 [label="gini = 0.0\nsamples = 4\nvalue = [8, 0]\nclass = perished", fillcolor="#e58139"] ;
167 -> 168 ;
169 [label="gini = 0.22\nsamples = 6\nvalue = [7, 1]\nclass = perished", fillcolor="#e99355"] ;
167 -> 169 ;
170 [label="gini = 0.0\nsamples = 1\nvalue = [1, 0]\nclass = perished", fillcolor="#e58139"] ;
166 -> 170 ;
171 [label="gini = 0.0\nsamples = 12\nvalue = [22, 0]\nclass = perished", fillcolor="#e58139"] ;
165 -> 171 ;
172 [label="gini = 0.0\nsamples = 4\nvalue = [8, 0]\nclass = perished", fillcolor="#e58139"] ;
164 -> 172 ;
173 [label="Pclass <= 2.5\ngini = 0.13\nsamples = 33\nvalue = [41, 3]\nclass = perished", fillcolor="#e78a47"] ;
163 -> 173 ;
174 [label="Fare <= 1.28\ngini = 0.2\nsamples = 6\nvalue = [8, 1]\nclass = perished", fillcolor="#e89152"] ;
173 -> 174 ;
175 [label="gini = 0.0\nsamples = 5\nvalue = [8, 0]\nclass = perished", fillcolor="#e58139"] ;
174 -> 175 ;
176 [label="gini = 0.0\nsamples = 1\nvalue = [0, 1]\nclass = survived", fillcolor="#399de5"] ;
174 -> 176 ;
177 [label="FamilySize <= 1.5\ngini = 0.11\nsamples = 27\nvalue = [33, 2]\nclass = perished", fillcolor="#e78945"] ;
173 -> 177 ;
178 [label="Fare <= 2.09\ngini = 0.11\nsamples = 25\nvalue = [31, 2]\nclass = perished", fillcolor="#e78946"] ;
177 -> 178 ;
179 [label="gini = 0.0\nsamples = 19\nvalue = [26, 0]\nclass = perished", fillcolor="#e58139"] ;
178 -> 179 ;
180 [label="Age <= 32.7\ngini = 0.41\nsamples = 6\nvalue = [5, 2]\nclass = perished", fillcolor="#efb388"] ;
178 -> 180 ;
181 [label="Fare <= 2.38\ngini = 0.48\nsamples = 5\nvalue = [3, 2]\nclass = perished", fillcolor="#f6d5bd"] ;
180 -> 181 ;
182 [label="gini = 0.0\nsamples = 1\nvalue = [0, 1]\nclass = survived", fillcolor="#399de5"] ;
181 -> 182 ;
183 [label="Fare <= 3.35\ngini = 0.38\nsamples = 4\nvalue = [3, 1]\nclass = perished", fillcolor="#eeab7b"] ;
181 -> 183 ;
184 [label="gini = 0.0\nsamples = 2\nvalue = [2, 0]\nclass = perished", fillcolor="#e58139"] ;
183 -> 184 ;
185 [label="gini = 0.5\nsamples = 2\nvalue = [1, 1]\nclass = perished", fillcolor="#ffffff"] ;
183 -> 185 ;
186 [label="gini = 0.0\nsamples = 1\nvalue = [2, 0]\nclass = perished", fillcolor="#e58139"] ;
180 -> 186 ;
187 [label="gini = 0.0\nsamples = 2\nvalue = [2, 0]\nclass = perished", fillcolor="#e58139"] ;
177 -> 187 ;
188 [label="Fare <= 3.15\ngini = 0.24\nsamples = 4\nvalue = [6, 1]\nclass = perished", fillcolor="#e9965a"] ;
162 -> 188 ;
189 [label="gini = 0.0\nsamples = 1\nvalue = [0, 1]\nclass = survived", fillcolor="#399de5"] ;
188 -> 189 ;
190 [label="gini = 0.0\nsamples = 3\nvalue = [6, 0]\nclass = perished", fillcolor="#e58139"] ;
188 -> 190 ;
191 [label="IsAlone <= 0.5\ngini = 0.44\nsamples = 5\nvalue = [6, 3]\nclass = perished", fillcolor="#f2c09c"] ;
161 -> 191 ;
192 [label="gini = 0.0\nsamples = 1\nvalue = [3, 0]\nclass = perished", fillcolor="#e58139"] ;
191 -> 192 ;
193 [label="Pclass <= 2.5\ngini = 0.5\nsamples = 4\nvalue = [3, 3]\nclass = perished", fillcolor="#ffffff"] ;
191 -> 193 ;
194 [label="gini = 0.38\nsamples = 2\nvalue = [1, 3]\nclass = survived", fillcolor="#7bbeee"] ;
193 -> 194 ;
195 [label="gini = 0.0\nsamples = 2\nvalue = [2, 0]\nclass = perished", fillcolor="#e58139"] ;
193 -> 195 ;
196 [label="Pclass <= 2.5\ngini = 0.05\nsamples = 47\nvalue = [71, 2]\nclass = perished", fillcolor="#e6853f"] ;
160 -> 196 ;
197 [label="gini = 0.0\nsamples = 13\nvalue = [19, 0]\nclass = perished", fillcolor="#e58139"] ;
196 -> 197 ;
198 [label="Fare <= 2.07\ngini = 0.07\nsamples = 34\nvalue = [52, 2]\nclass = perished", fillcolor="#e68641"] ;
196 -> 198 ;
199 [label="gini = 0.0\nsamples = 14\nvalue = [24, 0]\nclass = perished", fillcolor="#e58139"] ;
198 -> 199 ;
200 [label="Fare <= 2.08\ngini = 0.12\nsamples = 20\nvalue = [28, 2]\nclass = perished", fillcolor="#e78a47"] ;
198 -> 200 ;
201 [label="gini = 0.44\nsamples = 2\nvalue = [2, 1]\nclass = perished", fillcolor="#f2c09c"] ;
200 -> 201 ;
202 [label="IsAlone <= 0.5\ngini = 0.07\nsamples = 18\nvalue = [26, 1]\nclass = perished", fillcolor="#e68641"] ;
200 -> 202 ;
203 [label="gini = 0.0\nsamples = 8\nvalue = [14, 0]\nclass = perished", fillcolor="#e58139"] ;
202 -> 203 ;
204 [label="Age <= 46.0\ngini = 0.14\nsamples = 10\nvalue = [12, 1]\nclass = perished", fillcolor="#e78c49"] ;
202 -> 204 ;
205 [label="Fare <= 2.12\ngini = 0.28\nsamples = 6\nvalue = [5, 1]\nclass = perished", fillcolor="#ea9a61"] ;
204 -> 205 ;
206 [label="Age <= 44.5\ngini = 0.38\nsamples = 4\nvalue = [3, 1]\nclass = perished", fillcolor="#eeab7b"] ;
205 -> 206 ;
207 [label="gini = 0.0\nsamples = 3\nvalue = [3, 0]\nclass = perished", fillcolor="#e58139"] ;
206 -> 207 ;
208 [label="gini = 0.0\nsamples = 1\nvalue = [0, 1]\nclass = survived", fillcolor="#399de5"] ;
206 -> 208 ;
209 [label="gini = 0.0\nsamples = 2\nvalue = [2, 0]\nclass = perished", fillcolor="#e58139"] ;
205 -> 209 ;
210 [label="gini = 0.0\nsamples = 4\nvalue = [7, 0]\nclass = perished", fillcolor="#e58139"] ;
204 -> 210 ;
211 [label="Fare <= 2.2\ngini = 0.44\nsamples = 3\nvalue = [2, 1]\nclass = perished", fillcolor="#f2c09c"] ;
159 -> 211 ;
212 [label="gini = 0.0\nsamples = 2\nvalue = [2, 0]\nclass = perished", fillcolor="#e58139"] ;
211 -> 212 ;
213 [label="gini = 0.0\nsamples = 1\nvalue = [0, 1]\nclass = survived", fillcolor="#399de5"] ;
211 -> 213 ;
214 [label="Fare <= 3.88\ngini = 0.4\nsamples = 250\nvalue = [106, 278]\nclass = survived", fillcolor="#84c2ef"] ;
0 -> 214 [labeldistance=2.5, labelangle=-45, headlabel="False"] ;
215 [label="Fare <= 3.27\ngini = 0.45\nsamples = 190\nvalue = [98, 189]\nclass = survived", fillcolor="#a0d0f2"] ;
214 -> 215 ;
216 [label="Pclass <= 2.5\ngini = 0.42\nsamples = 151\nvalue = [70, 167]\nclass = survived", fillcolor="#8cc6f0"] ;
215 -> 216 ;
217 [label="Sex <= 0.5\ngini = 0.23\nsamples = 52\nvalue = [11, 71]\nclass = survived", fillcolor="#58ace9"] ;
216 -> 217 ;
218 [label="Fare <= 3.01\ngini = 0.03\nsamples = 41\nvalue = [1, 67]\nclass = survived", fillcolor="#3c9ee5"] ;
217 -> 218 ;
219 [label="gini = 0.0\nsamples = 23\nvalue = [0, 42]\nclass = survived", fillcolor="#399de5"] ;
218 -> 219 ;
220 [label="FamilySize <= 2.5\ngini = 0.07\nsamples = 18\nvalue = [1, 25]\nclass = survived", fillcolor="#41a1e6"] ;
218 -> 220 ;
221 [label="IsAlone <= 0.5\ngini = 0.09\nsamples = 12\nvalue = [1, 19]\nclass = survived", fillcolor="#43a2e6"] ;
220 -> 221 ;
222 [label="Age <= 27.5\ngini = 0.1\nsamples = 10\nvalue = [1, 17]\nclass = survived", fillcolor="#45a3e7"] ;
221 -> 222 ;
223 [label="Fare <= 3.09\ngini = 0.28\nsamples = 5\nvalue = [1, 5]\nclass = survived", fillcolor="#61b1ea"] ;
222 -> 223 ;
224 [label="gini = 0.0\nsamples = 1\nvalue = [1, 0]\nclass = perished", fillcolor="#e58139"] ;
223 -> 224 ;
225 [label="gini = 0.0\nsamples = 4\nvalue = [0, 5]\nclass = survived", fillcolor="#399de5"] ;
223 -> 225 ;
226 [label="gini = 0.0\nsamples = 5\nvalue = [0, 12]\nclass = survived", fillcolor="#399de5"] ;
222 -> 226 ;
227 [label="gini = 0.0\nsamples = 2\nvalue = [0, 2]\nclass = survived", fillcolor="#399de5"] ;
221 -> 227 ;
228 [label="gini = 0.0\nsamples = 6\nvalue = [0, 6]\nclass = survived", fillcolor="#399de5"] ;
220 -> 228 ;
229 [label="FamilySize <= 2.5\ngini = 0.41\nsamples = 11\nvalue = [10, 4]\nclass = perished", fillcolor="#efb388"] ;
217 -> 229 ;
230 [label="gini = 0.0\nsamples = 8\nvalue = [10, 0]\nclass = perished", fillcolor="#e58139"] ;
229 -> 230 ;
231 [label="gini = 0.0\nsamples = 3\nvalue = [0, 4]\nclass = survived", fillcolor="#399de5"] ;
229 -> 231 ;
232 [label="Title <= 2.5\ngini = 0.47\nsamples = 99\nvalue = [59, 96]\nclass = survived", fillcolor="#b3d9f5"] ;
216 -> 232 ;
233 [label="IsAlone <= 0.5\ngini = 0.48\nsamples = 90\nvalue = [56, 85]\nclass = survived", fillcolor="#bbdef6"] ;
232 -> 233 ;
234 [label="Fare <= 2.63\ngini = 0.49\nsamples = 46\nvalue = [29, 39]\nclass = survived", fillcolor="#cce6f8"] ;
233 -> 234 ;
235 [label="Age <= 19.5\ngini = 0.35\nsamples = 10\nvalue = [4, 14]\nclass = survived", fillcolor="#72b9ec"] ;
234 -> 235 ;
236 [label="gini = 0.0\nsamples = 6\nvalue = [0, 10]\nclass = survived", fillcolor="#399de5"] ;
235 -> 236 ;
237 [label="Age <= 24.0\ngini = 0.5\nsamples = 4\nvalue = [4, 4]\nclass = perished", fillcolor="#ffffff"] ;
235 -> 237 ;
238 [label="gini = 0.0\nsamples = 2\nvalue = [3, 0]\nclass = perished", fillcolor="#e58139"] ;
237 -> 238 ;
239 [label="FamilySize <= 2.5\ngini = 0.32\nsamples = 2\nvalue = [1, 4]\nclass = survived", fillcolor="#6ab6ec"] ;
237 -> 239 ;
240 [label="gini = 0.0\nsamples = 1\nvalue = [1, 0]\nclass = perished", fillcolor="#e58139"] ;
239 -> 240 ;
241 [label="gini = 0.0\nsamples = 1\nvalue = [0, 4]\nclass = survived", fillcolor="#399de5"] ;
239 -> 241 ;
242 [label="Fare <= 2.73\ngini = 0.5\nsamples = 36\nvalue = [25, 25]\nclass = perished", fillcolor="#ffffff"] ;
234 -> 242 ;
243 [label="Title <= 1.5\ngini = 0.28\nsamples = 9\nvalue = [10, 2]\nclass = perished", fillcolor="#ea9a61"] ;
242 -> 243 ;
244 [label="Embarked <= 1.0\ngini = 0.41\nsamples = 6\nvalue = [5, 2]\nclass = perished", fillcolor="#efb388"] ;
243 -> 244 ;
245 [label="FamilySize <= 2.5\ngini = 0.48\nsamples = 5\nvalue = [3, 2]\nclass = perished", fillcolor="#f6d5bd"] ;
244 -> 245 ;
246 [label="Fare <= 2.67\ngini = 0.44\nsamples = 3\nvalue = [2, 1]\nclass = perished", fillcolor="#f2c09c"] ;
245 -> 246 ;
247 [label="Age <= 30.0\ngini = 0.5\nsamples = 2\nvalue = [1, 1]\nclass = perished", fillcolor="#ffffff"] ;
246 -> 247 ;
248 [label="gini = 0.0\nsamples = 1\nvalue = [0, 1]\nclass = survived", fillcolor="#399de5"] ;
247 -> 248 ;
249 [label="gini = 0.0\nsamples = 1\nvalue = [1, 0]\nclass = perished", fillcolor="#e58139"] ;
247 -> 249 ;
250 [label="gini = 0.0\nsamples = 1\nvalue = [1, 0]\nclass = perished", fillcolor="#e58139"] ;
246 -> 250 ;
251 [label="Age <= 32.45\ngini = 0.5\nsamples = 2\nvalue = [1, 1]\nclass = perished", fillcolor="#ffffff"] ;
245 -> 251 ;
252 [label="gini = 0.0\nsamples = 1\nvalue = [0, 1]\nclass = survived", fillcolor="#399de5"] ;
251 -> 252 ;
253 [label="gini = 0.0\nsamples = 1\nvalue = [1, 0]\nclass = perished", fillcolor="#e58139"] ;
251 -> 253 ;
254 [label="gini = 0.0\nsamples = 1\nvalue = [2, 0]\nclass = perished", fillcolor="#e58139"] ;
244 -> 254 ;
255 [label="gini = 0.0\nsamples = 3\nvalue = [5, 0]\nclass = perished", fillcolor="#e58139"] ;
243 -> 255 ;
256 [label="Embarked <= 1.5\ngini = 0.48\nsamples = 27\nvalue = [15, 23]\nclass = survived", fillcolor="#baddf6"] ;
242 -> 256 ;
257 [label="Embarked <= 0.5\ngini = 0.24\nsamples = 11\nvalue = [2, 12]\nclass = survived", fillcolor="#5aade9"] ;
256 -> 257 ;
258 [label="gini = 0.0\nsamples = 6\nvalue = [0, 7]\nclass = survived", fillcolor="#399de5"] ;
257 -> 258 ;
259 [label="Age <= 26.9\ngini = 0.41\nsamples = 5\nvalue = [2, 5]\nclass = survived", fillcolor="#88c4ef"] ;
257 -> 259 ;
260 [label="gini = 0.0\nsamples = 3\nvalue = [0, 4]\nclass = survived", fillcolor="#399de5"] ;
259 -> 260 ;
261 [label="Age <= 33.95\ngini = 0.44\nsamples = 2\nvalue = [2, 1]\nclass = perished", fillcolor="#f2c09c"] ;
259 -> 261 ;
262 [label="gini = 0.0\nsamples = 1\nvalue = [2, 0]\nclass = perished", fillcolor="#e58139"] ;
261 -> 262 ;
263 [label="gini = 0.0\nsamples = 1\nvalue = [0, 1]\nclass = survived", fillcolor="#399de5"] ;
261 -> 263 ;
264 [label="Fare <= 2.87\ngini = 0.5\nsamples = 16\nvalue = [13, 11]\nclass = perished", fillcolor="#fbece1"] ;
256 -> 264 ;
265 [label="Fare <= 2.77\ngini = 0.22\nsamples = 6\nvalue = [1, 7]\nclass = survived", fillcolor="#55abe9"] ;
264 -> 265 ;
266 [label="gini = 0.0\nsamples = 2\nvalue = [0, 3]\nclass = survived", fillcolor="#399de5"] ;
265 -> 266 ;
267 [label="Age <= 25.0\ngini = 0.32\nsamples = 4\nvalue = [1, 4]\nclass = survived", fillcolor="#6ab6ec"] ;
265 -> 267 ;
268 [label="gini = 0.0\nsamples = 1\nvalue = [0, 2]\nclass = survived", fillcolor="#399de5"] ;
267 -> 268 ;
269 [label="Fare <= 2.82\ngini = 0.44\nsamples = 3\nvalue = [1, 2]\nclass = survived", fillcolor="#9ccef2"] ;
267 -> 269 ;
270 [label="Age <= 30.95\ngini = 0.5\nsamples = 2\nvalue = [1, 1]\nclass = perished", fillcolor="#ffffff"] ;
269 -> 270 ;
271 [label="gini = 0.0\nsamples = 1\nvalue = [1, 0]\nclass = perished", fillcolor="#e58139"] ;
270 -> 271 ;
272 [label="gini = 0.0\nsamples = 1\nvalue = [0, 1]\nclass = survived", fillcolor="#399de5"] ;
270 -> 272 ;
273 [label="gini = 0.0\nsamples = 1\nvalue = [0, 1]\nclass = survived", fillcolor="#399de5"] ;
269 -> 273 ;
274 [label="Title <= 1.5\ngini = 0.38\nsamples = 10\nvalue = [12, 4]\nclass = perished", fillcolor="#eeab7b"] ;
264 -> 274 ;
275 [label="Fare <= 3.01\ngini = 0.38\nsamples = 5\nvalue = [6, 2]\nclass = perished", fillcolor="#eeab7b"] ;
274 -> 275 ;
276 [label="gini = 0.0\nsamples = 3\nvalue = [6, 0]\nclass = perished", fillcolor="#e58139"] ;
275 -> 276 ;
277 [label="gini = 0.0\nsamples = 2\nvalue = [0, 2]\nclass = survived", fillcolor="#399de5"] ;
275 -> 277 ;
278 [label="Age <= 6.0\ngini = 0.38\nsamples = 5\nvalue = [6, 2]\nclass = perished", fillcolor="#eeab7b"] ;
274 -> 278 ;
279 [label="gini = 0.0\nsamples = 1\nvalue = [0, 2]\nclass = survived", fillcolor="#399de5"] ;
278 -> 279 ;
280 [label="gini = 0.0\nsamples = 4\nvalue = [6, 0]\nclass = perished", fillcolor="#e58139"] ;
278 -> 280 ;
281 [label="Embarked <= 1.5\ngini = 0.47\nsamples = 44\nvalue = [27, 46]\nclass = survived", fillcolor="#add7f4"] ;
233 -> 281 ;
282 [label="Fare <= 2.01\ngini = 0.19\nsamples = 21\nvalue = [4, 34]\nclass = survived", fillcolor="#50a9e8"] ;
281 -> 282 ;
283 [label="gini = 0.0\nsamples = 4\nvalue = [0, 9]\nclass = survived", fillcolor="#399de5"] ;
282 -> 283 ;
284 [label="Fare <= 2.04\ngini = 0.24\nsamples = 17\nvalue = [4, 25]\nclass = survived", fillcolor="#59ade9"] ;
282 -> 284 ;
285 [label="gini = 0.0\nsamples = 1\nvalue = [2, 0]\nclass = perished", fillcolor="#e58139"] ;
284 -> 285 ;
286 [label="Age <= 26.25\ngini = 0.14\nsamples = 16\nvalue = [2, 25]\nclass = survived", fillcolor="#49a5e7"] ;
284 -> 286 ;
287 [label="Age <= 18.9\ngini = 0.07\nsamples = 15\nvalue = [1, 25]\nclass = survived", fillcolor="#41a1e6"] ;
286 -> 287 ;
288 [label="gini = 0.0\nsamples = 2\nvalue = [0, 3]\nclass = survived", fillcolor="#399de5"] ;
287 -> 288 ;
289 [label="Fare <= 2.05\ngini = 0.08\nsamples = 13\nvalue = [1, 22]\nclass = survived", fillcolor="#42a1e6"] ;
287 -> 289 ;
290 [label="Age <= 21.9\ngini = 0.11\nsamples = 10\nvalue = [1, 16]\nclass = survived", fillcolor="#45a3e7"] ;
289 -> 290 ;
291 [label="Fare <= 2.05\ngini = 0.12\nsamples = 9\nvalue = [1, 15]\nclass = survived", fillcolor="#46a4e7"] ;
290 -> 291 ;
292 [label="gini = 0.0\nsamples = 2\nvalue = [0, 2]\nclass = survived", fillcolor="#399de5"] ;
291 -> 292 ;
293 [label="gini = 0.13\nsamples = 7\nvalue = [1, 13]\nclass = survived", fillcolor="#48a5e7"] ;
291 -> 293 ;
294 [label="gini = 0.0\nsamples = 1\nvalue = [0, 1]\nclass = survived", fillcolor="#399de5"] ;
290 -> 294 ;
295 [label="gini = 0.0\nsamples = 3\nvalue = [0, 6]\nclass = survived", fillcolor="#399de5"] ;
289 -> 295 ;
296 [label="gini = 0.0\nsamples = 1\nvalue = [1, 0]\nclass = perished", fillcolor="#e58139"] ;
286 -> 296 ;
297 [label="Age <= 19.0\ngini = 0.45\nsamples = 23\nvalue = [23, 12]\nclass = perished", fillcolor="#f3c3a0"] ;
281 -> 297 ;
298 [label="Fare <= 2.17\ngini = 0.44\nsamples = 5\nvalue = [2, 4]\nclass = survived", fillcolor="#9ccef2"] ;
297 -> 298 ;
299 [label="Age <= 16.0\ngini = 0.44\nsamples = 3\nvalue = [2, 1]\nclass = perished", fillcolor="#f2c09c"] ;
298 -> 299 ;
300 [label="gini = 0.0\nsamples = 1\nvalue = [1, 0]\nclass = perished", fillcolor="#e58139"] ;
299 -> 300 ;
301 [label="Fare <= 2.03\ngini = 0.5\nsamples = 2\nvalue = [1, 1]\nclass = perished", fillcolor="#ffffff"] ;
299 -> 301 ;
302 [label="gini = 0.0\nsamples = 1\nvalue = [0, 1]\nclass = survived", fillcolor="#399de5"] ;
301 -> 302 ;
303 [label="gini = 0.0\nsamples = 1\nvalue = [1, 0]\nclass = perished", fillcolor="#e58139"] ;
301 -> 303 ;
304 [label="gini = 0.0\nsamples = 2\nvalue = [0, 3]\nclass = survived", fillcolor="#399de5"] ;
298 -> 304 ;
305 [label="Fare <= 2.44\ngini = 0.4\nsamples = 18\nvalue = [21, 8]\nclass = perished", fillcolor="#efb184"] ;
297 -> 305 ;
306 [label="Age <= 21.9\ngini = 0.35\nsamples = 17\nvalue = [21, 6]\nclass = perished", fillcolor="#eca572"] ;
305 -> 306 ;
307 [label="gini = 0.0\nsamples = 3\nvalue = [7, 0]\nclass = perished", fillcolor="#e58139"] ;
306 -> 307 ;
308 [label="Title <= 1.5\ngini = 0.42\nsamples = 14\nvalue = [14, 6]\nclass = perished", fillcolor="#f0b78e"] ;
306 -> 308 ;
309 [label="Fare <= 2.12\ngini = 0.44\nsamples = 2\nvalue = [2, 1]\nclass = perished", fillcolor="#f2c09c"] ;
308 -> 309 ;
310 [label="gini = 0.0\nsamples = 1\nvalue = [2, 0]\nclass = perished", fillcolor="#e58139"] ;
309 -> 310 ;
311 [label="gini = 0.0\nsamples = 1\nvalue = [0, 1]\nclass = survived", fillcolor="#399de5"] ;
309 -> 311 ;
312 [label="Age <= 23.5\ngini = 0.42\nsamples = 12\nvalue = [12, 5]\nclass = perished", fillcolor="#f0b58b"] ;
308 -> 312 ;
313 [label="Age <= 22.5\ngini = 0.44\nsamples = 4\nvalue = [2, 4]\nclass = survived", fillcolor="#9ccef2"] ;
312 -> 313 ;
314 [label="Fare <= 2.2\ngini = 0.44\nsamples = 2\nvalue = [1, 2]\nclass = survived", fillcolor="#9ccef2"] ;
313 -> 314 ;
315 [label="gini = 0.0\nsamples = 1\nvalue = [0, 2]\nclass = survived", fillcolor="#399de5"] ;
314 -> 315 ;
316 [label="gini = 0.0\nsamples = 1\nvalue = [1, 0]\nclass = perished", fillcolor="#e58139"] ;
314 -> 316 ;
317 [label="Fare <= 2.05\ngini = 0.44\nsamples = 2\nvalue = [1, 2]\nclass = survived", fillcolor="#9ccef2"] ;
313 -> 317 ;
318 [label="gini = 0.0\nsamples = 1\nvalue = [0, 2]\nclass = survived", fillcolor="#399de5"] ;
317 -> 318 ;
319 [label="gini = 0.0\nsamples = 1\nvalue = [1, 0]\nclass = perished", fillcolor="#e58139"] ;
317 -> 319 ;
320 [label="Fare <= 2.07\ngini = 0.17\nsamples = 8\nvalue = [10, 1]\nclass = perished", fillcolor="#e88e4d"] ;
312 -> 320 ;
321 [label="gini = 0.0\nsamples = 4\nvalue = [5, 0]\nclass = perished", fillcolor="#e58139"] ;
320 -> 321 ;
322 [label="Fare <= 2.11\ngini = 0.28\nsamples = 4\nvalue = [5, 1]\nclass = perished", fillcolor="#ea9a61"] ;
320 -> 322 ;
323 [label="gini = 0.0\nsamples = 1\nvalue = [0, 1]\nclass = survived", fillcolor="#399de5"] ;
322 -> 323 ;
324 [label="gini = 0.0\nsamples = 3\nvalue = [5, 0]\nclass = perished", fillcolor="#e58139"] ;
322 -> 324 ;
325 [label="gini = 0.0\nsamples = 1\nvalue = [0, 2]\nclass = survived", fillcolor="#399de5"] ;
305 -> 325 ;
326 [label="Age <= 2.5\ngini = 0.34\nsamples = 9\nvalue = [3, 11]\nclass = survived", fillcolor="#6fb8ec"] ;
232 -> 326 ;
327 [label="Fare <= 3.04\ngini = 0.5\nsamples = 2\nvalue = [2, 2]\nclass = perished", fillcolor="#ffffff"] ;
326 -> 327 ;
328 [label="gini = 0.0\nsamples = 1\nvalue = [0, 2]\nclass = survived", fillcolor="#399de5"] ;
327 -> 328 ;
329 [label="gini = 0.0\nsamples = 1\nvalue = [2, 0]\nclass = perished", fillcolor="#e58139"] ;
327 -> 329 ;
330 [label="FamilySize <= 4.0\ngini = 0.18\nsamples = 7\nvalue = [1, 9]\nclass = survived", fillcolor="#4fa8e8"] ;
326 -> 330 ;
331 [label="gini = 0.0\nsamples = 6\nvalue = [0, 9]\nclass = survived", fillcolor="#399de5"] ;
330 -> 331 ;
332 [label="gini = 0.0\nsamples = 1\nvalue = [1, 0]\nclass = perished", fillcolor="#e58139"] ;
330 -> 332 ;
333 [label="FamilySize <= 4.5\ngini = 0.49\nsamples = 39\nvalue = [28, 22]\nclass = perished", fillcolor="#f9e4d5"] ;
215 -> 333 ;
334 [label="Fare <= 3.36\ngini = 0.36\nsamples = 19\nvalue = [6, 19]\nclass = survived", fillcolor="#78bced"] ;
333 -> 334 ;
335 [label="Pclass <= 1.5\ngini = 0.44\nsamples = 5\nvalue = [4, 2]\nclass = perished", fillcolor="#f2c09c"] ;
334 -> 335 ;
336 [label="gini = 0.0\nsamples = 3\nvalue = [4, 0]\nclass = perished", fillcolor="#e58139"] ;
335 -> 336 ;
337 [label="gini = 0.0\nsamples = 2\nvalue = [0, 2]\nclass = survived", fillcolor="#399de5"] ;
335 -> 337 ;
338 [label="Sex <= 0.5\ngini = 0.19\nsamples = 14\nvalue = [2, 17]\nclass = survived", fillcolor="#50a9e8"] ;
334 -> 338 ;
339 [label="gini = 0.0\nsamples = 7\nvalue = [0, 10]\nclass = survived", fillcolor="#399de5"] ;
338 -> 339 ;
340 [label="Title <= 4.0\ngini = 0.35\nsamples = 7\nvalue = [2, 7]\nclass = survived", fillcolor="#72b9ec"] ;
338 -> 340 ;
341 [label="gini = 0.0\nsamples = 3\nvalue = [0, 3]\nclass = survived", fillcolor="#399de5"] ;
340 -> 341 ;
342 [label="IsAlone <= 0.5\ngini = 0.44\nsamples = 4\nvalue = [2, 4]\nclass = survived", fillcolor="#9ccef2"] ;
340 -> 342 ;
343 [label="gini = 0.0\nsamples = 1\nvalue = [1, 0]\nclass = perished", fillcolor="#e58139"] ;
342 -> 343 ;
344 [label="Embarked <= 1.0\ngini = 0.32\nsamples = 3\nvalue = [1, 4]\nclass = survived", fillcolor="#6ab6ec"] ;
342 -> 344 ;
345 [label="Fare <= 3.55\ngini = 0.5\nsamples = 2\nvalue = [1, 1]\nclass = perished", fillcolor="#ffffff"] ;
344 -> 345 ;
346 [label="gini = 0.0\nsamples = 1\nvalue = [0, 1]\nclass = survived", fillcolor="#399de5"] ;
345 -> 346 ;
347 [label="gini = 0.0\nsamples = 1\nvalue = [1, 0]\nclass = perished", fillcolor="#e58139"] ;
345 -> 347 ;
348 [label="gini = 0.0\nsamples = 1\nvalue = [0, 3]\nclass = survived", fillcolor="#399de5"] ;
344 -> 348 ;
349 [label="Title <= 2.5\ngini = 0.21\nsamples = 20\nvalue = [22, 3]\nclass = perished", fillcolor="#e99254"] ;
333 -> 349 ;
350 [label="Fare <= 3.44\ngini = 0.13\nsamples = 11\nvalue = [13, 1]\nclass = perished", fillcolor="#e78b48"] ;
349 -> 350 ;
351 [label="gini = 0.0\nsamples = 7\nvalue = [7, 0]\nclass = perished", fillcolor="#e58139"] ;
350 -> 351 ;
352 [label="Fare <= 3.49\ngini = 0.24\nsamples = 4\nvalue = [6, 1]\nclass = perished", fillcolor="#e9965a"] ;
350 -> 352 ;
353 [label="gini = 0.0\nsamples = 1\nvalue = [0, 1]\nclass = survived", fillcolor="#399de5"] ;
352 -> 353 ;
354 [label="gini = 0.0\nsamples = 3\nvalue = [6, 0]\nclass = perished", fillcolor="#e58139"] ;
352 -> 354 ;
355 [label="Embarked <= 1.5\ngini = 0.3\nsamples = 9\nvalue = [9, 2]\nclass = perished", fillcolor="#eb9d65"] ;
349 -> 355 ;
356 [label="gini = 0.0\nsamples = 2\nvalue = [3, 0]\nclass = perished", fillcolor="#e58139"] ;
355 -> 356 ;
357 [label="Age <= 3.5\ngini = 0.38\nsamples = 7\nvalue = [6, 2]\nclass = perished", fillcolor="#eeab7b"] ;
355 -> 357 ;
358 [label="FamilySize <= 6.5\ngini = 0.5\nsamples = 3\nvalue = [2, 2]\nclass = perished", fillcolor="#ffffff"] ;
357 -> 358 ;
359 [label="gini = 0.0\nsamples = 2\nvalue = [2, 0]\nclass = perished", fillcolor="#e58139"] ;
358 -> 359 ;
360 [label="gini = 0.0\nsamples = 1\nvalue = [0, 2]\nclass = survived", fillcolor="#399de5"] ;
358 -> 360 ;
361 [label="gini = 0.0\nsamples = 4\nvalue = [4, 0]\nclass = perished", fillcolor="#e58139"] ;
357 -> 361 ;
362 [label="Embarked <= 1.0\ngini = 0.15\nsamples = 60\nvalue = [8, 89]\nclass = survived", fillcolor="#4ba6e7"] ;
214 -> 362 ;
363 [label="gini = 0.0\nsamples = 29\nvalue = [0, 48]\nclass = survived", fillcolor="#399de5"] ;
362 -> 363 ;
364 [label="Fare <= 4.21\ngini = 0.27\nsamples = 31\nvalue = [8, 41]\nclass = survived", fillcolor="#60b0ea"] ;
362 -> 364 ;
365 [label="gini = 0.0\nsamples = 9\nvalue = [0, 17]\nclass = survived", fillcolor="#399de5"] ;
364 -> 365 ;
366 [label="Fare <= 4.3\ngini = 0.38\nsamples = 22\nvalue = [8, 24]\nclass = survived", fillcolor="#7bbeee"] ;
364 -> 366 ;
367 [label="gini = 0.0\nsamples = 3\nvalue = [4, 0]\nclass = perished", fillcolor="#e58139"] ;
366 -> 367 ;
368 [label="FamilySize <= 3.5\ngini = 0.24\nsamples = 19\nvalue = [4, 24]\nclass = survived", fillcolor="#5aade9"] ;
366 -> 368 ;
369 [label="gini = 0.0\nsamples = 13\nvalue = [0, 20]\nclass = survived", fillcolor="#399de5"] ;
368 -> 369 ;
370 [label="Age <= 8.0\ngini = 0.5\nsamples = 6\nvalue = [4, 4]\nclass = perished", fillcolor="#ffffff"] ;
368 -> 370 ;
371 [label="gini = 0.0\nsamples = 1\nvalue = [3, 0]\nclass = perished", fillcolor="#e58139"] ;
370 -> 371 ;
372 [label="FamilySize <= 5.0\ngini = 0.32\nsamples = 5\nvalue = [1, 4]\nclass = survived", fillcolor="#6ab6ec"] ;
370 -> 372 ;
373 [label="Fare <= 4.9\ngini = 0.44\nsamples = 3\nvalue = [1, 2]\nclass = survived", fillcolor="#9ccef2"] ;
372 -> 373 ;
374 [label="gini = 0.0\nsamples = 2\nvalue = [0, 2]\nclass = survived", fillcolor="#399de5"] ;
373 -> 374 ;
375 [label="gini = 0.0\nsamples = 1\nvalue = [1, 0]\nclass = perished", fillcolor="#e58139"] ;
373 -> 375 ;
376 [label="gini = 0.0\nsamples = 2\nvalue = [0, 2]\nclass = survived", fillcolor="#399de5"] ;
372 -> 376 ;
}